3,10
-0.170881,-0.137024,0.060826,-0.180346,0.069351,0.235143,0.088488,0.189676,0.293353,0.151556,0.057666,0.008057,0.012279,0.292030,-0.043466,-0.097963,-0.138886,0.088212,0.044149,0.346419,0.110195,0.395265,-0.213607,-0.339138,0.305781,0.002448,0.080342,-0.424351,-0.218591,-0.543892,0.011622,0.170097,-0.414994,0.637964,0.040772,0.043207,-0.314078,-0.295919,-0.629334,-0.010633,-0.206502,-0.150505,-0.099402,-0.095482,-0.037512,0.307523,-0.125559,0.312533,0.200470,0.108025,0.266538,-0.106126,0.153825,0.185649,0.318822,0.246091,-0.010948,0.363695,0.337832,0.492935,-0.039013,-0.009987,0.137677,-0.218794,0.135035,0.220985,0.126548,0.251250,0.377470,-0.105462,0.450085,0.369527,0.060742,0.300637,0.324739,0.030744,0.234024,-0.158928,-0.377102,-0.178894,0.016054,0.129448,0.039219,-0.254025,-0.298993,0.293772,0.328216,0.184890,0.037343,-0.382747,-0.271149,-0.008548,0.232543,-0.004615,0.044923,0.108463,0.036216,-0.205298,0.039280,-0.018475,0.246560,0.221291,-0.067653,0.016544,0.088974,-0.252074,0.029662,-0.071801,0.081122,-0.232452,0.031124,0.041353,0.461887,-0.240337,0.473880,-0.042177,0.095028,-0.281230,-0.048524,-0.017971,0.037225,-0.012086,0.190876,-0.014625,-0.046492,0.261946,-0.105530,0.063537,-0.037085,-0.168648,0.648518,0.170827,0.196149,0.425225,0.219511,-0.127832,0.058424,-0.143481,-0.097349,0.213491,-0.039314,-0.042373,0.223807,-0.073478,0.411703,0.055816,-0.002024,-0.302720,0.117678,0.363060,0.152149,0.015204,0.203737,0.014132,-0.126549,0.399961,-0.009040,0.156129,-0.164444,0.009405,-0.055909,-0.024376,0.190638,0.088942,0.333816,0.035880,-0.198601,-0.440745,-0.031181,-0.187571,-0.274026,0.017390,-0.091327,0.014178,-0.066374,-0.227597,-0.217077,0.513924,0.312685,0.207491,0.377517,0.225299,0.148992,-0.149008,0.175258,-0.386304,0.279324,-0.227572,0.328905,0.072462,-0.279771,-0.216194,0.059561,-0.160845,-0.060270,0.218063,-0.133874,0.067989,0.023652,0.020944,-0.269832,-0.015297,0.085439,0.016495,0.226708,-0.055812,-0.130834,-0.361200,-0.622484,-0.080789,-0.344562,-0.221886,0.096361,0.255418,-0.319602,0.650206,-0.351602,-0.156984,0.048133,0.212623,0.630966,-0.103080,-0.297626,0.309076,-0.234450,0.131000,-0.008253,0.646582,0.164697,0.154281,-0.624542,-0.250251,0.382289,-0.595726,-0.124208,0.174225,0.176414,0.100446,-0.353638,0.057283,-0.316156,-0.075948,0.183530,-0.466109,-0.154158,-0.098544,0.286710,0.005255,0.096749,-0.087267,-0.069308,-0.023064,0.078121,0.107930,-0.090215,-0.087670,-0.113024,-0.011123,0.122580,0.204058,0.457427,0.108843,-0.435938,0.407149,0.121196,-0.671749,-0.348592,0.190102,0.110892,-0.038878,-0.143309,0.018983,0.042231,-0.033600,-0.055911,0.189463,0.014126,-0.087754,-0.117705,-0.075691,-0.168977,-0.309162,0.054139,-0.118247,-0.047767,0.240684,0.036830,0.254323,0.094838,0.053001,-0.069143,-0.118930,-0.036564,-0.011175,0.026185,0.424798,-0.222698,-0.115590,-0.564230,0.008696,-0.131819,-0.051839,0.272748,-0.242422,-0.155396,-0.015089,0.043242,-0.096942,0.454748,-0.459935,0.305686,0.158510,0.214870,-0.229103,-0.151956,-0.249464,0.436191,0.060936,0.273593,0.226456,-0.636150,0.291610,-0.301591,-0.252751,0.336191,-0.279997,-0.177552,-0.586202,-0.206820,-0.116335,0.053218,0.287730,-0.267551,0.065410,-0.398776,-0.619170,0.277508,-0.249518,0.146162,-0.052171,-0.245438,-0.215241,0.014489,-0.444985,0.086176,0.084181,0.286933,0.060244,0.416858,-0.030577,-0.412427,-0.046587,-0.145037,-0.431670,-0.072831,-0.024853,-0.289081,0.105228,0.016485,0.165599,0.016127,-0.175952,0.101834,-0.062890,0.025043,0.181242,0.153695,-0.043099,0.224375,0.111228,-0.155089,-0.135876,-0.028928,-0.094342,0.080674,0.058981,-0.078114,0.218085,-0.028925,0.003046,0.280690,-0.213681,-0.008586,0.161966,0.061257,0.577073,-0.030745,0.039997,-0.316544,0.068656,0.081177,-0.140841,0.095114,0.206808,0.036543,-0.297282,-0.342430,0.041182,-0.137194,0.516883,-0.141219,0.005176,-0.108440,0.085401,-0.117595,0.040149,-0.089585,0.112558,-0.007350,-0.004024,0.135974,0.338084,-0.013792,0.115018,-0.035596,-0.423218,-0.043335,0.136658,0.131305,0.171488,0.202401,0.175375,0.188196,-0.186144,0.053125,0.095940,0.203859,-0.000860,0.106881,-0.349587,-0.099979,-0.037977,0.059219,-0.006539,0.257278,0.122174,0.056290,-0.223273,0.101937,0.112275,-0.121864,-0.442319,0.060698,-0.128506,-0.290547,0.246531,-0.148809,0.411867,-0.018904,0.473232,-0.076845,-0.223791,0.188229,-0.111287,-0.016174,0.294179,0.193428,0.150779,0.131238,-0.160606,-0.118330,-0.188700,-0.020151,-0.114390,0.137181,0.004543,-0.045400,0.162078,-0.010142,-0.021442,0.083207,-0.117938,-0.128532,-0.259167,0.097102,0.251394,0.077855,0.442780,0.385542,-0.106833,0.044406,-0.206653,-0.085989,0.504286,0.004788,-0.241881,-0.353683,0.386240,0.178011,0.349751,-0.111347,0.017025,-0.102233,-0.114583,-0.122861,-0.094308,0.015320,-0.160840,-0.229897,-0.016088,0.313113,-0.085261,-0.022090,0.810853,-0.283816,0.136397,-0.159024,-0.008729,0.191214,0.209682,0.449657,0.226872,-0.002067,-0.001362,0.013338,-0.285583,0.184074,-0.240676,0.161933,-0.240092,0.183565,-0.046708,-0.269321,0.206140,-0.069162,0.003890,-0.390643,0.083700,-0.039518,0.118361,-0.500777,-0.028424,0.435094,-0.548323,-0.253480,0.561285,0.295836,-0.022807,0.263168,-0.310364,0.160062,-0.060163,0.089121,-0.049386,0.125545,-0.087253,0.128668,-0.134477,0.116645,0.027108,-0.269703,-0.157835,0.002434,-0.108576,0.061295,-0.055443,-0.163613,-0.056034,-0.053528,-0.036976,0.217626,-0.224886,-0.119873,-0.066162,0.143584,0.337855,-0.048825,0.534830,0.227943,0.357714,0.212579,0.168012,0.053164,0.109003,-0.132075,-0.297654,0.329009,-0.288043,0.213434,0.001129,-0.179006,0.066444,-0.103658,0.194516,0.042826,-0.218574,-0.374948,-0.361107,-0.598551,-0.095574,-0.023786,-0.073611,-0.065399,-0.146588,-0.241550,-0.061431,0.105831,0.333436,0.220421,0.114552,-0.189423,-0.012826,-0.482974,-0.044868,-0.128206,-0.016252,-0.520730,0.427803,0.015828,-0.261390,-0.087805,-0.262475,0.074672,-0.211382,-0.078372,-0.009339,-0.199759,-0.033482,0.271034,0.170251,0.290481,0.040384,0.112909,0.271977,0.031811,-0.057859,-0.028274,0.078616,-0.121768,0.248707,-0.146020,0.077591,0.010806,-0.009977,0.099887,-0.035835,-0.036393,-0.183655,-0.217627,-0.140079,0.231731,0.279246,-0.103711,0.043104,0.133419,-0.437398,-0.022538,-0.167172,-0.073378,-0.298064,-0.339137,-0.204484,-0.135374,-0.195404,-0.037550,0.036925,-0.203969,0.097404,-0.061686,0.163526,0.050121,0.058757,-0.042382,0.149224,-0.105232,0.047299,0.083558,-0.170889,0.267357,-0.238531,0.124775,0.039452,0.093013,0.042330,-0.181609,-0.051394,0.054779,0.144926,-0.015245,0.029970,0.019493,0.130569,0.057245,0.041857,-0.173339,0.027468,0.009986,-0.020049,-0.017227,-0.183257,-0.034363,-0.226757,-0.016341,-0.131942,-0.117908,-0.151826,-0.064317,0.244776,-0.036851,0.302610,-0.039262,-0.129830,0.068950,0.152124,-0.194156,0.079366,0.003064,-0.114642,0.170299,-0.196081,0.387806,0.001480,0.060046,0.255561,-0.163271,-0.027462,-0.107216,0.263809,-0.352429,0.237821,0.051857,0.224294,0.011885,-0.129203,0.169086,-0.339337,0.095771,-0.323594,0.088003,-0.060075,0.027961,0.193704,-0.113154,0.208456,0.004050,-0.358548,-0.181212,-0.005441,-0.346492,-0.176348,0.096393,-0.101059,-0.026868,-0.071501,0.001072,-0.017899,0.282731,-0.092186,0.179791,0.045584,-0.027877,0.217732,-0.643575,-0.012057,0.224453,-0.337030,-0.255370,-0.487310,-0.163091,0.204417,0.090026,0.404017,-0.226288,0.262411,-0.019322,-0.039963,-0.233821,-0.334505,-0.300324,-0.050797,0.212313,0.083760,0.093363,0.355050,-0.236754,0.312180,0.151444,0.524717,0.361846,-0.002576,0.022179,0.292694,-0.007630,-0.257421,0.061576,-0.290648,0.277865,0.012781,0.491838,0.106971,0.367399,0.083631,0.044034,-0.138570,-0.302583,0.355095,0.171507,-0.229671,-0.250739,0.082980,-0.241222,-0.162309,-0.386043,-0.472263,-0.142894,0.471215,-0.136893,0.576974,0.752603,0.030521,0.070031,-0.109933,0.267046,0.199186,-0.251953,0.077058,0.097458,0.339499,0.045573,0.426306,
-0.171884,-0.008715,-0.276194,0.163552,0.098185,-0.197340,0.122367,0.131276,-0.242002,-0.285457,-0.032112,-0.025930,-0.519480,0.076823,0.483827,-0.284811,-0.857238,-0.662739,0.132618,0.250039,-0.066780,0.292757,-0.210256,0.034207,0.017097,-0.018451,-0.085787,-0.105756,0.098492,0.668950,-0.373534,-0.144738,0.481155,0.227306,0.341755,-0.195514,-0.024410,0.096418,-0.059375,0.098704,0.298733,-0.160602,0.283167,-0.565566,-0.555370,0.519310,-0.777519,-0.440239,0.463588,-0.211188,-0.808682,0.097928,-0.328867,-0.299270,0.381363,0.192599,0.108397,0.108604,-0.085463,0.269921,-0.041279,-0.358023,0.855494,0.380740,-0.315727,0.069269,0.160540,0.214178,-0.116807,-0.279253,0.004743,-0.123993,0.060970,0.281030,0.738319,-0.402925,0.144549,0.005821,-0.006133,0.052968,0.243437,-0.536418,-0.377842,0.394748,-0.333780,-0.303257,-0.567621,-0.363577,-0.539632,-0.664737,-0.124627,-0.130605,-0.620321,0.487050,0.655872,-0.364959,0.304068,0.129752,-0.414154,-0.293987,-0.196711,0.057954,-0.143326,-0.542786,0.350437,0.034702,-0.314736,0.004736,-0.121510,-0.678574,
-0.081190,0.065832,-0.013841,0.142288,0.209502,-0.119799,-0.011545,-0.054045,-0.040762,-0.042189,-0.057461,-0.312594,-0.168447,-0.385553,-0.138351,0.333223,-0.275908,-0.186381,-0.152805,-0.404239,-0.222050,0.228650,0.134040,0.083541,0.261015,0.634641,-0.175305,0.047562,-0.112160,-0.089099,0.157507,0.014073,0.322401,-0.503637,-0.258952,-0.022568,0.559277,0.339023,-0.090470,0.107895,-0.345469,0.165086,0.240312,-0.150135,0.109939,-0.868854,0.151900,-0.017854,-0.029118,0.266638,-0.578384,0.513110,-0.000586,0.124335,-0.239242,-0.295385,0.014882,0.139682,0.436688,-0.146896,0.440988,-0.176258,-0.073867,0.054849,-0.051226,0.681880,0.211926,0.091946,-0.141389,0.073962,-0.051785,0.114576,0.090350,0.056571,1.052509,0.180599,-0.165852,0.196474,-0.430728,-0.187207,-0.113515,0.114151,0.033466,-0.170405,0.611358,0.125533,0.170622,0.396426,-0.180611,-0.121924,0.078310,-0.080544,0.163903,-0.256704,-0.259820,0.786070,0.049226,-0.264200,0.003380,0.074314,-0.392307,0.126734,0.580383,0.025120,0.398553,0.984396,-0.123797,-0.510665,-0.204633,0.492559,
-0.009257,0.059580,-0.056918,-0.028105,-0.019928,-0.047203,-0.098837,0.199652,-0.197035,0.624069,-0.073116,-0.398373,-0.031143,-0.252214,-0.119226,-0.278677,-0.169688,-0.156450,-0.076349,-0.043009,0.761554,-0.172732,-0.000210,0.083207,0.027892,0.780741,-0.319442,-0.106475,0.088380,-0.946865,0.032326,0.544001,-0.000702,0.215885,0.708954,-0.224273,0.720704,-0.385242,-0.561551,-0.210275,-0.019852,0.082974,0.029428,-0.763802,-0.179621,-0.079950,0.084333,-0.467608,0.041935,-0.744361,-0.609189,-0.281975,0.072121,-0.050129,0.079316,0.023226,-0.396697,-0.268368,-0.064321,-0.121850,0.034518,-0.004075,0.738185,0.343554,-0.130008,-0.789939,
