3,10
0.165508,0.191591,-0.052816,0.060719,0.174033,0.079468,-0.034931,-0.020755,0.136528,-0.058952,0.318398,0.446397,0.028289,0.252848,-0.155627,0.099565,0.196650,-0.009166,-0.045630,-0.016246,-0.105086,-0.602547,-0.201568,0.388811,-0.234097,-0.021771,0.093963,-0.263203,-0.148907,-0.011889,0.133939,0.034764,0.451750,-0.086630,-0.263113,-0.148884,0.412639,0.160367,-0.423251,0.504838,0.196139,0.121490,-0.088923,-0.075562,0.318107,-0.058634,-0.001168,0.166887,0.096751,-0.353181,0.009843,0.728696,0.378477,-0.217657,0.040081,-0.011230,-0.184524,-0.239495,0.261804,-0.018401,-0.101691,0.125533,-0.086194,-0.187906,0.084929,0.040628,-0.018085,-0.180516,0.128645,-0.375743,-0.176054,0.081326,0.287487,-0.053667,-0.447037,0.241622,0.017282,-0.394564,-0.206398,0.095175,-0.195651,-0.355050,-0.091649,-0.109085,-0.131619,0.351651,-0.031804,0.116876,-0.225060,-0.308633,0.196536,-0.194708,-0.010000,0.393687,-0.004843,0.103357,0.095608,-0.044793,0.089632,-0.282598,-0.036302,-0.121076,0.029220,0.013779,-0.203140,0.045058,0.068311,-0.007907,0.054819,0.025462,-0.247127,0.031930,-0.020333,0.052224,-0.084855,0.300499,-0.033032,-0.438803,0.129011,0.172632,-0.228472,-0.085395,0.181100,0.097649,0.265970,-0.171584,0.106429,-0.127141,-0.107577,-0.181039,-0.323033,0.447199,0.461513,-0.147126,-0.475301,-0.032230,-0.128819,-0.350322,0.036010,0.403164,-0.110050,0.279952,-0.102243,0.307022,0.023904,-0.320816,-0.310357,-0.357378,0.364812,-0.112373,-0.149738,-0.026125,0.302206,-0.060395,0.110425,0.063307,0.054512,0.026753,-0.018020,-0.141044,-0.235183,-0.065202,0.161494,0.131960,-0.127515,-0.350904,0.104103,-0.318009,-0.002162,0.275259,0.285320,0.234962,-0.083808,0.063940,-0.122022,0.247516,0.344517,-0.052980,-0.151847,0.086160,-0.148575,0.107525,-0.004091,-0.067418,-0.241679,0.220644,-0.404752,-0.178902,0.247375,0.117548,-0.021702,-0.105611,0.015780,-0.012000,-0.154410,0.021149,0.069888,-0.007312,0.033565,-0.022411,0.079626,-0.344165,0.184155,0.310432,0.362218,-0.476580,-0.183429,-0.223472,0.023144,0.165404,-0.081775,0.115203,-0.145857,0.469636,0.568321,-0.203517,0.396101,0.026427,-0.033799,-0.352419,0.302139,0.090381,0.609216,-0.390932,0.090656,0.637842,0.157210,0.218626,-0.128686,0.001246,-0.045667,-0.326729,0.114299,0.033940,0.579318,0.051256,-0.433515,-0.051276,-0.042012,-0.331125,-0.049415,-0.279474,-0.114242,-0.136938,0.346144,0.102955,-0.560882,0.066441,-0.192844,-0.207744,-0.190869,0.192248,-0.290664,0.257500,0.085110,-0.041350,0.087381,0.087335,0.156249,-0.247412,0.528643,0.037458,0.157519,-0.241357,-0.278930,-0.310452,0.185315,0.111238,0.170981,0.499390,-0.187846,0.013728,0.191330,0.148450,0.088314,-0.053252,-0.056613,0.007416,-0.013545,-0.115761,0.050125,0.077271,0.042026,-0.100569,0.170999,-0.006476,-0.075179,0.045208,0.110174,-0.260537,-0.125145,-0.326000,0.356462,0.214761,0.477522,-0.108927,0.067618,-0.095154,-0.005977,-0.026337,-0.234771,-0.133077,-0.303666,0.225830,-0.021865,0.235070,0.072198,0.042376,-0.120830,-0.266464,-0.088237,0.270334,-0.347910,-0.427256,-0.075877,0.365706,-0.189733,0.185729,-0.010925,0.104251,0.045776,-0.357166,-0.635050,0.598887,-0.115610,-0.904837,-0.182428,-0.136739,0.075467,-0.028942,0.067642,-0.214416,-0.504753,-0.007603,-0.235792,0.023166,-0.095090,0.480548,-0.267085,0.063857,0.157580,-0.181301,-0.277763,0.400817,0.088691,0.217091,-0.246536,0.069509,0.234435,-0.051286,0.197447,0.027330,-0.049685,0.023058,0.379573,-0.222641,-0.113658,-0.037650,0.174454,-0.020395,-0.124462,0.051205,0.005498,0.014834,0.035892,-0.083058,-0.198521,-0.004526,0.031332,-0.146955,0.027928,0.036420,-0.027171,-0.055489,-0.011034,-0.051234,-0.055722,-0.040160,0.099473,-0.176563,-0.137125,-0.239540,0.335349,-0.054881,0.251925,0.101626,-0.035014,-0.112548,-0.014283,-0.069962,0.431424,0.196525,0.012241,0.303090,-0.078962,-0.079872,0.175673,-0.124739,0.002171,0.382526,0.065497,-0.011630,0.295390,-0.020962,0.001742,-0.024445,-0.013140,0.061317,-0.032759,0.078496,0.166046,0.056857,-0.026960,0.126287,-0.251466,0.004734,0.075224,0.101975,-0.010452,0.313349,-0.153510,-0.244959,0.121263,0.153337,-0.090567,0.410012,0.030498,-0.108275,0.238687,-0.107576,-0.097986,0.099329,-0.148752,0.207511,0.246951,-0.239145,-0.423277,-0.266633,-0.098192,-0.085892,0.131562,0.124338,0.220684,-0.210188,0.437313,0.286507,-0.347980,0.237639,0.286604,-0.251303,-0.115815,-0.089219,0.052903,-0.186606,0.053840,0.038902,0.029277,0.036716,0.031331,-0.288066,0.037724,0.116207,-0.040341,-0.040899,0.002010,-0.043086,-0.039762,-0.036173,0.086503,-0.155815,-0.030620,0.084441,-0.129668,-0.168201,0.201447,0.402786,0.105354,0.021067,0.213079,-0.114365,0.452801,0.582279,0.036102,-0.192736,0.085710,-0.023855,0.174061,0.129953,0.027549,0.266291,0.101931,-0.065674,-0.142522,0.104951,0.029098,-0.204183,0.155854,0.068077,-0.229418,-0.066501,0.121791,0.126045,0.770173,-0.341943,-0.164643,0.003862,-0.019137,0.128828,0.150269,0.214161,-0.192565,0.120510,-0.078567,-0.228823,-0.321543,0.121789,0.037966,0.016232,-0.236218,0.158956,0.162942,0.096762,0.212628,-0.183335,0.153805,-0.030189,0.239729,0.096738,-0.015013,0.038899,-0.386628,-0.328205,-0.426913,-0.020230,0.321263,0.241631,-0.170953,0.060403,0.066439,-0.435068,-0.152969,0.042170,-0.061866,0.042735,-0.108224,-0.104668,-0.186706,-0.069186,0.013030,-0.016760,-0.041587,-0.144414,-0.024354,0.029795,-0.345748,0.010439,0.118263,-0.091545,0.036420,0.146156,0.127429,0.544139,0.251286,-0.149715,0.387138,0.272257,-0.127698,0.096912,0.363392,-0.189180,-0.141288,0.243489,-0.263438,-0.011640,-0.296434,0.067415,-0.001617,0.264364,-0.265021,0.029709,0.129804,-0.341431,0.252926,0.174084,-0.143611,-0.582488,0.117775,-0.110935,-0.046274,0.272557,-0.032015,0.004792,-0.027334,0.025718,0.238628,0.202055,-0.010698,0.276562,0.195307,-0.172701,0.491120,-0.193426,-0.176124,0.074014,-0.113796,0.152079,0.656079,0.151927,-0.197168,0.186501,0.072181,0.055580,-0.166276,0.006611,0.255789,0.199256,-0.161866,-0.035906,-0.008642,-0.178164,0.010548,0.212008,0.199014,-0.292219,0.044731,-0.159692,0.014695,-0.024256,0.187038,0.220958,-0.200604,-0.012836,0.152667,0.184475,-0.087519,-0.104364,-0.038253,-0.091910,-0.046216,-0.022867,-0.043412,-0.167068,-0.026960,-0.002989,-0.326662,-0.049287,0.108600,-0.077334,-0.014215,0.082686,0.192382,-0.156770,-0.290150,0.175571,-0.152871,0.021396,0.038578,0.130465,-0.017745,0.044427,-0.213234,-0.035167,-0.111698,-0.068549,-0.080872,0.006028,-0.089196,0.178811,-0.129629,-0.139533,-0.151636,0.310566,0.047347,-0.277795,0.127475,0.181719,0.006236,0.128442,-0.036714,-0.146531,-0.205534,-0.212030,0.084216,-0.049357,-0.050584,0.052942,0.054724,0.036936,-0.027293,-0.016968,0.066396,0.221539,-0.047492,0.200270,0.208377,0.093145,-0.077366,0.176879,0.155467,-0.070975,-0.044081,-0.087492,-0.049635,-0.094009,0.249705,-0.060037,0.042836,0.139957,-0.201750,-0.152214,0.093709,0.250387,0.221899,-0.284427,-0.271254,0.001114,0.201689,0.118678,-0.003102,0.406112,-0.067470,-0.013880,-0.108103,0.284077,-0.196460,-0.024763,-0.253822,-0.194304,0.074589,0.019830,0.307718,-0.073150,0.094109,0.174445,-0.229509,-0.217695,0.327452,0.079309,-0.160044,0.120030,-0.061320,-0.284414,0.126795,-0.069070,-0.371795,0.195639,-0.322366,0.034367,0.010178,0.248841,0.399277,-0.095497,0.049433,0.333265,-0.167208,-0.392985,-0.183929,-0.043423,-0.210073,0.337844,-0.034662,0.122259,0.064233,-0.164792,-0.330434,-0.526368,-0.082945,0.030765,-0.345963,0.193829,-0.171545,0.448667,0.204549,-0.027787,-0.062021,0.243626,0.476210,0.061452,-0.102921,-0.092936,-0.027512,0.209442,-0.591608,-0.028847,-0.448074,-0.186958,0.027541,-0.000918,0.153128,-0.119682,-0.334502,0.201157,0.150258,-0.001790,-0.193518,0.129373,0.138431,-0.096607,-0.022572,-0.258610,0.325955,-0.121003,-0.485274,0.179803,0.263961,0.562926,0.058303,0.193559,0.114863,-0.470785,0.138371,0.518059,0.276653,-0.145142,-0.117898,0.289872,0.089629,0.081722,0.108463,-0.131175,
0.070349,0.177485,-0.089585,0.008111,-0.109656,0.309386,-0.273282,-0.112472,-0.075986,-0.259560,-0.067130,0.514688,-0.093223,-0.318413,0.033543,0.061477,0.087977,-0.042423,0.206193,0.552816,0.081440,0.466333,0.146654,-0.395866,0.516794,0.182928,-0.648401,-0.122556,-0.695855,0.212484,-0.179589,0.602978,-0.063790,0.023100,0.543127,0.124791,0.452566,-0.119009,-0.708009,-0.298948,-0.115036,0.353983,-0.279205,-0.427978,-0.354640,-0.061320,0.446656,0.542747,0.545710,-0.393940,-0.116208,0.496515,-0.326603,-0.247329,-0.214678,-0.087078,0.126682,-0.781306,0.137977,-0.668879,0.276338,-0.276465,0.636514,-0.143965,-0.043315,-0.162518,-0.510043,-0.536021,-0.577116,-0.052171,-0.517836,-0.032475,0.097733,0.003848,0.315781,-0.049645,0.598902,-0.299998,-0.338669,0.561086,-0.110970,0.412388,0.129509,-0.035130,0.039359,-0.822222,-0.084442,-0.078984,0.180721,0.346045,0.156079,0.444636,0.085930,-0.170709,-0.246336,0.477528,-0.186812,-0.369812,-0.062372,0.036408,-0.104227,-0.036092,0.104019,-0.078508,0.343670,0.070095,-0.098693,0.802050,-0.330073,0.482080,
0.011520,0.038344,-0.041071,0.044713,-0.024679,-0.020197,-0.061694,-0.067907,0.054588,-0.016143,0.365460,0.127519,-0.078053,0.318761,0.125250,0.067085,0.225880,0.005544,-0.067973,0.175477,0.097877,0.088611,0.215028,-0.252377,1.053619,-0.126529,-0.091607,0.384318,0.210041,0.093117,-0.067230,-0.025663,0.167840,0.432171,-0.166480,0.034512,-0.136893,-0.026768,-0.428325,0.285096,-0.053629,0.125163,-0.243579,-0.088253,-0.487459,0.056351,0.177343,0.252928,-0.112474,0.198306,-0.005524,-0.011673,0.518767,-0.409243,-0.083307,0.064138,-0.298854,0.101453,-0.474216,-0.246595,0.326425,-0.198685,-0.211522,-0.155799,0.001249,0.052057,0.179240,-0.447591,-0.180257,0.197635,-0.133576,-0.090277,-0.236481,-0.766841,-0.173119,0.005217,0.023451,0.195543,0.630203,-0.307490,0.190931,-0.007440,0.045998,0.480829,-0.134266,0.015162,0.116578,0.059048,-0.310734,-1.149513,0.150886,0.051597,-0.749605,-0.151461,0.173060,-0.092666,0.367009,0.041638,0.063826,-0.152338,-0.121503,0.010849,-0.194189,-0.304265,0.445948,0.044318,0.091946,0.049600,-0.879170,0.005011,
0.059530,-0.007351,-0.009426,-0.027205,0.024516,0.009662,0.468592,0.383127,-0.140922,0.046195,-0.033347,-0.786237,0.093673,0.081870,0.023256,-0.078260,-0.009764,0.600892,0.300124,-0.615908,-0.115303,-0.098948,-0.678382,0.025651,0.020491,-0.377541,-0.328759,-0.859218,0.045107,0.370814,-0.133335,0.208251,-1.027928,-0.100136,0.257411,0.085862,-0.265270,0.030209,0.079318,-0.071406,-0.128442,0.158084,0.276037,0.458372,0.005542,-0.108083,0.387408,0.085873,0.330098,0.109003,0.007188,0.296638,-0.172162,0.839639,-0.048569,-1.288992,-0.042987,-0.035374,0.090113,0.126388,-0.753162,0.447968,0.163148,0.093183,0.202799,-0.030222,
